-0.2237811121343115
1.5934639914767832
-130.91229269670566
297.3884526266348
-18.163869884606072
-0.005263502838696899
0.4058896359190069
-0.02431693915401909
-0.3644255097664958
1.9586826989180475
282.44901180540217
-46.55529174253472
76.11319843535306
0.6258301867701925
0.007749564834212839
-0.009888733325036885
0.26700369029500853
2.3070992567640567
-845.9251338555532
723.9781877699934
93.4150471942755
-0.03925035290667343
-0.1300535121783167
0.04451250643933423
0.521292198974491
2.556340241669778
1038.8721858765025
-141.0818704264353
-391.3507964821939
0.4548978789343906
0.3992415133676513
-0.14454060314151332
-0.23542202207499913
4.13428351945432
-658.5676548685555
1518.6146498928529
406.7107569088474
-0.1249044686694009
-0.12389820091493539
0.1309894953649739
0.37223405414146216
3.971813825039793
-44.568711505827885
-4996.357827514439
22.720996888632644
-0.3148440844517645
0.28193337211305036
0.12662425899923585
0.495841982348999
3.3029670617979483
-161.5452989273715
3620.0458318961932
51.91456652129894
-0.06901329279373
0.5129194937593379
-0.07224467890016362
0.12661324903543467
3.444280574977714
220.7896698010057
-1038.8273260286687
-114.82185568837743
-0.030651864062600155
0.5449473321500938
0.0355712401333827
-0.18859815902369947
3.4351201141259904
297.48650150974714
2417.2355150452704
46.02303464433186
0.25837236199032776
-0.08022802246190576
-0.1347458394392186
0.4707289045574566
2.505976289096907
-156.20740774051532
-2621.89845552101
-12.59835704505126
-0.08721573420326252
0.2594782216280292
0.14078704453154747
0.6248719465135864
2.3654399966197475
-174.07793042067857
-243.01024487861756
16.59881147360273
0.43252674353442183
0.3844667824394654
-0.1440878797038266
0.014977943617771546
1.907713103905103
699.3888666259575
1146.2160698414832
-245.41445365273205
0.2568091939045273
0.009604766678784286
0.3261870824939152
2.17494042996405
2.391877629656414
2.271446379702251
5.328148078089086
-1.7670613560834831
1.790998461104504
2.070000194309004
16.914717970871155
0.45745118036170246
0.5185015677195676
-5187.316222337085
-2656.0044070825697
1517.5350153869385
-0.4257360871742904
-0.10447436510663112
-6.700894083400097
1.1977740756834476
