7.621085634516931
0.4698405861854553
0.165912926197052
-0.037456393241882324
0.29927051067352295
0.5317875742912292
0.14727795124053955
0.44330447912216187
5.019036162984362
-0.32183903455734253
0.29757100343704224
0.43424057960510254
0.3890839219093323
-0.24810069799423218
-0.2603282332420349
0.13349378108978271
-2.8510180572295556
-0.08731067180633545
0.5212077498435974
0.10082131624221802
0.6044990420341492
0.09101223945617676
0.6229586601257324
-0.28971201181411743
-0.44955629813968606
0.5054885149002075
0.5269283652305603
0.5132665038108826
0.25872719287872314
0.11904746294021606
-0.33213430643081665
0.28777068853378296
0.20690198934827803
-0.3593018651008606
-0.15672719478607178
0.33342939615249634
-0.35371899604797363
0.1294947862625122
-0.0492669939994812
0.3354669213294983
-10.302155344749464
0.46962231397628784
0.5477709174156189
-0.019855141639709473
-0.14016664028167725
0.45743685960769653
0.3690757155418396
0.15062189102172852
-4.7103418703481434
0.1729886531829834
0.4100773334503174
0.48661643266677856
0.43276017904281616
-0.14665812253952026
-0.2935349941253662
-0.04776442050933838
-2.557662423932239
-6.608963012695312E-4
-0.1411692500114441
-0.2493698000907898
0.20559215545654297
-0.25909894704818726
0.4133596420288086
-0.04337698221206665
0.7081478119781112
0.07121056318283081
-0.202830970287323
-0.05784714221954346
-0.13754993677139282
-0.0969896912574768
-0.10506463050842285
0.45540571212768555
1.199435194757626
-0.33029454946517944
-0.04312628507614136
-0.17787176370620728
-0.08735895156860352
0.5120634436607361
0.15262079238891602
0.4842212200164795
-3.240534589592051
-0.21674960851669312
0.17740339040756226
0.12179476022720337
0.5029442310333252
0.44904518127441406
0.21296530961990356
0.1440715789794922
1.672648038677825
-0.06221473217010498
-0.2763827443122864
-0.06639516353607178
0.33771616220474243
0.5404841899871826
-0.10437285900115967
0.017112314701080322
5705.736158510454
1213.3408598325827
430.2406747967663
429.99873137783396
429.8826947839804
429.4090409309427
429.8475807339848
430.13071739975436
0.0747127839751495
-0.22925782203674316
-0.19754421710968018
0.4582226872444153
-0.4496980905532837
-0.30160248279571533
0.019126951694488525
0.1838526725769043
429.27528006141983
